encog,BasicNetwork,java,3.4.0,1,1507553729334
[BASIC]
[BASIC:PARAMS]
[BASIC:NETWORK]
beginTraining=0
connectionLimit=0
contextTargetOffset=0,0,0
contextTargetSize=0,0,0
endTraining=2
hasContext=f
inputCount=8
layerCounts=3,10,9
layerFeedCounts=3,9,8
layerContextCount=0,0,0
layerIndex=0,3,13
output=0.9816957474,0.0493500276,0.99584955,0.0206330928,0.4652749888,0.1386046978,0.0184810844,0.9655527715,0.9998538089,0.9999996891,0.1627172465,0.9999994431,1,0,1,0,0,0,1,1,1,1
outputCount=3
weightIndex=0,30,111
weights=25.2064905101,10.661578293,-3.7666037347,-5.7211868426,-0.3060551724,1.6263842391,-13.021487553,-0.0012751844,6.0702827954,0.0188303854,0.4096991005,-22.0432324876,-10.5125356005,6.5554514724,-1.9395081183,0.440131322,12.0572009104,-0.6792697288,-25.8183985844,0.4155024608,-13.0300349888,6.4090927354,-0.2669151485,-3.3814100289,0.2579235419,-2.3624640691,8.632668448,-1.979872466,-1.5224184758,-0.697187194,-9.8381406155,0.0862622816,0.7713661197,-11.9528934153,-13.4806836803,-1.7360044767,-5.9064554071,4.0839588643,-2.6085043164,-20.4032282435,-9.3651443988,-14.957912805,-14.6277055523,-13.001545107,10.5378958683,-17.2300268956,32.6609673361,-5.4545906892,-9.0899599086,0.2288472505,-3.7241043822,-0.3593985068,2.0161620837,-2.2644289211,-6.1174370826,-15.0017667144,-0.1620817722,19.7356412037,6.365480191,2.70113266,-0.9806102381,-0.9563932359,-21.8737293081,21.0957217183,-33.0879987992,-2.5335789516,-0.503107453,-0.8011677528,-0.3333531427,0.5987418829,0.5717089534,0.7157821442,-1.7654654402,9.1949164775,0.3779493827,-1.9512469212,-0.3954770206,4.3237467509,-0.1531129441,-1.5587765816,-2.0664229801,-2.6608039044,-16.388643171,0.4492274414,3.3322769377,-23.2345413342,-8.5864763603,-1.9437454764,-1.0325732513,0.8383450576,15.9241558838,-2.7336097038,-2.3924809015,-3.4767508894,24.640130527,28.2001392657,1.8775021339,-0.988859927,-7.9205171706,-21.0581469003,-26.1270486885,1.0008354371,-31.7849497956,-6.9272415813,-1.9074536642,-6.3479702304,-21.1709871748,0.8920240393,-29.3174607506,11.8980709919,10.3797943807
biasActivation=0,1,1
[BASIC:ACTIVATION]
"org.encog.engine.network.activation.ActivationSigmoid"
"org.encog.engine.network.activation.ActivationSigmoid"
"org.encog.engine.network.activation.ActivationLinear"
