encog,BasicNetwork,java,3.4.0,1,1507560910352
[BASIC]
[BASIC:PARAMS]
[BASIC:NETWORK]
beginTraining=0
connectionLimit=0
contextTargetOffset=0,0,0
contextTargetSize=0,0,0
endTraining=2
hasContext=f
inputCount=8
layerCounts=3,10,9
layerFeedCounts=3,9,8
layerContextCount=0,0,0
layerIndex=0,3,13
output=0.9109524584,0.0756692862,0.972915424,0.0110324158,0.7462286274,0.9952386467,0.0237112646,0.0001978335,0.9950959422,0.4659854076,0.2321086344,0.981605118,1,0,1,0,0,0,1,1,1,1
outputCount=3
weightIndex=0,30,111
weights=-6.8494786384,-0.9368453388,-1.6863099023,2.5553259644,-3.5660240399,-0.8932352251,0.2423870756,247.7916811835,7.0939825803,-1.471392615,5.5816081336,-113.4171444692,-1.568599119,-52.7337176597,56.2952988024,-96.5868259279,0.9124305254,-12.5155509879,-1.4818231216,0.7755605636,-1.2482322546,-1.1697385504,7.1647430637,-1.595465692,-47.513263051,-0.0524113895,-1.2450845661,10.169344575,2.1184224821,1.1428007988,4.689546369,-1.1466352254,-4.3834410077,2.2702217651,-1.1102287774,1.9849115867,3.828019554,-210.123634396,-1.5422958491,-6.904920978,2.1433970136,15.5137929105,7.0484354086,1.8966514707,-32.3954367081,-39.0186128845,-40.1057774382,-1.2230125742,-32.1982377995,-9.6245162298,-254.5065196866,-8.2128498367,1.5124799921,228.2399742679,-6.9522162216,253.6975477706,-0.0127090737,-11.3669151553,-3.9528309573,7.6758516247,-1.112940767,-0.1750479951,-3.2768388941,-8.5765238142,6.3085082061,-3.1368690474,9.9384202833,10.7468520781,239.3076138619,4.9139257499,-9.7498089496,-234.8976920305,-35.3636325885,-261.7854294035,-5.8666778437,-247.6598444146,0.0296302591,7.0649653534,11.1165433904,5.389654942,-6.973156216,-8.5090745691,-0.3206424799,-3.2277998396,4.4622967697,0.2331887619,5.1577333758,0.0952436095,-1.6934002061,-175.8203124036,4.7589428368,-5.0101231973,-0.888251305,-25.3869959168,-8.1111250929,-2.6840451231,-238.1848145637,-257.1267893897,-6.5634422751,-4.9304473509,17.2351843371,-6.6976218485,-261.2819339413,-8.3590925397,1.0907283007,-260.184054295,-254.8554540794,-0.8809219448,-4.4320403637,260.5079558621,0.1739304408
biasActivation=0,1,1
[BASIC:ACTIVATION]
"org.encog.engine.network.activation.ActivationSigmoid"
"org.encog.engine.network.activation.ActivationSigmoid"
"org.encog.engine.network.activation.ActivationLinear"
