encog,BasicNetwork,java,3.4.0,1,1507488377381
[BASIC]
[BASIC:PARAMS]
[BASIC:NETWORK]
beginTraining=0
connectionLimit=0
contextTargetOffset=0,0,0
contextTargetSize=0,0,0
endTraining=2
hasContext=f
inputCount=8
layerCounts=3,10,9
layerFeedCounts=3,9,8
layerContextCount=0,0,0
layerIndex=0,3,13
output=0,0,0,0,0,0,0,0,0,0,0,0,1,0,0,0,0,0,0,0,0,1
outputCount=3
weightIndex=0,30,111
weights=2.0015221859,-2.2857450708,-2.1133284398,1.2930143914,-3.2383790028,-1.8342043616,-1.2751260302,0.3666991517,2.4273139675,0.4193869045,-2.4775721543,2.9096024843,-1.4103058226,-0.8000851994,0.4268920809,-3.3619819336,1.0032728578,-0.6377588116,-2.2398977931,0.3607357944,-0.1177221297,0.3729519482,-0.8479874732,1.9543117061,0.1839505643,1.8192188785,-4.8236823006,0.8006949402,-1.8268014584,0.9012840919,-2.5593343962,-0.8976111467,0.6277112823,0.0935685476,-0.8646690503,0.4653666522,-2.4128992814,4.1105706169,-0.3230451615,3.5442025224,-0.451819341,-1.4333656921,-0.372068791,-0.9322611561,0.129418017,1.6602915898,-3.353529478,-1.0110037597,0.1077929399,0.8167948438,-0.9735867433,1.2574871429,1.5631406243,-1.7730241338,-2.4463990233,-1.7344192385,-0.9623630606,-0.2264943982,-1.42658865,-1.9638248064,-0.8549077698,-0.776807214,0.1001320673,0.3900193886,3.0015087296,-0.586814917,2.4577184199,-0.340811566,-1.21405919,1.9540613156,2.314307349,-0.3944473652,0.6615063522,-2.6778258733,-0.762983482,-2.6260281164,-0.6003437704,-3.4946020824,1.1967953985,2.2413513107,0.0891901401,-2.4134332203,1.5439761619,0.0726319426,0.0967345999,3.4242957101,4.1689060026,2.038861445,-1.0257280104,-4.1532827423,-2.712832753,-3.3131193865,-0.0868566309,-0.1823259422,-0.5152285301,-1.3359326324,-0.6510323938,0.0517611168,-0.5473448436,-0.7369675524,1.3598330227,-1.4784724086,-2.6368681611,-1.0173930389,1.8887821713,0.2061890123,-1.6756495261,-0.4251148076,-4.4052825893,0.5952907663,-0.0456939615
biasActivation=0,1,1
[BASIC:ACTIVATION]
"org.encog.engine.network.activation.ActivationSigmoid"
"org.encog.engine.network.activation.ActivationSigmoid"
"org.encog.engine.network.activation.ActivationLinear"
