encog,BasicNetwork,java,3.4.0,1,1507401254846
[BASIC]
[BASIC:PARAMS]
[BASIC:NETWORK]
beginTraining=0
connectionLimit=0
contextTargetOffset=0,0,0
contextTargetSize=0,0,0
endTraining=2
hasContext=f
inputCount=8
layerCounts=3,10,9
layerFeedCounts=3,9,8
layerContextCount=0,0,0
layerIndex=0,3,13
output=0,0,0,0,0,0,0,0,0,0,0,0,1,0,0,0,0,0,0,0,0,1
outputCount=3
weightIndex=0,30,111
weights=2.5892739998,1.25657112,0.0305627761,-0.6175083146,-1.6123033767,-2.8148082237,-0.2105686348,-2.6536527255,3.1006454107,-0.4289751775,-2.7408206847,-2.5909965774,2.2423821638,-1.8776772344,-0.60577937,2.3053394778,-0.6290675998,-2.6218729847,-1.7341955049,0.7266839169,0.3347615671,-2.5587891403,-3.2979835917,-3.4381318521,1.9827872198,-1.4193972593,-0.2761650542,-0.1106837801,-1.6279200933,2.5934375591,-3.0689409945,1.1384090917,-1.2663891421,-0.6193342669,-0.5584901027,-1.1261881489,-0.5475685444,4.0981133513,-1.2068596431,-4.3745902037,1.1611516637,3.0403565625,0.3986928152,0.3667901758,-1.3011558021,-4.3895413613,1.0788545832,-0.8021896339,1.5309668367,1.4600564401,3.2706420907,-1.4327115711,-2.4015545244,-2.3323915125,-0.2254615221,-3.729565405,-1.6396753577,-3.2953998572,1.6919479711,2.9843604647,2.272910024,0.3599701059,-2.9066884359,-3.4965316675,-2.0711113145,-1.2137043634,-0.2091682282,-1.9041946315,-2.1470924816,-0.701238925,1.9676775984,0.8162901169,-1.1114803674,0.1838291517,-0.8863089041,2.960013076,1.4545878605,0.4330473462,0.421136621,0.6956482684,-1.8484640625,1.8964421682,-5.9083169006,-1.5759382293,-0.9165589961,-0.4467855406,-0.2676873978,0.8052408591,-0.2501627373,-0.8927034623,-0.801979132,-0.3209921165,-1.6763147557,-1.8894680099,0.0954958084,-1.9151965939,1.5457811165,2.5652357365,-1.216114161,-3.0735541078,-1.4074004268,-0.483806279,-3.5583515085,-1.64418206,3.2575011524,-1.3877426085,-1.0603433246,-0.4275629568,-2.695522401,1.183250746,-1.0956305562
biasActivation=0,1,1
[BASIC:ACTIVATION]
"org.encog.engine.network.activation.ActivationSigmoid"
"org.encog.engine.network.activation.ActivationSigmoid"
"org.encog.engine.network.activation.ActivationLinear"
