encog,BasicNetwork,java,3.4.0,1,1507553729202
[BASIC]
[BASIC:PARAMS]
[BASIC:NETWORK]
beginTraining=0
connectionLimit=0
contextTargetOffset=0,0,0
contextTargetSize=0,0,0
endTraining=2
hasContext=f
inputCount=8
layerCounts=3,10,9
layerFeedCounts=3,9,8
layerContextCount=0,0,0
layerIndex=0,3,13
output=0,0,0,0,0,0,0,0,0,0,0,0,1,0,0,0,0,0,0,0,0,1
outputCount=3
weightIndex=0,30,111
weights=-6.0129778136,-0.7137300629,0.7851616213,0.0884404312,-0.2829422528,2.3473005895,0.4060020804,0.575680713,1.070087144,0.6843100867,0.6072379962,-0.483249419,-1.0501842477,-2.1506963597,2.1097747384,0.3778430349,-1.4767965373,1.1748606071,-4.6212601184,0.9314116313,0.7828551933,-0.4432074258,-4.582455152,-0.7201585282,0.8287901956,2.5352550021,1.2357858185,-0.9212835102,1.8054121007,0.0924863098,5.161037561,-0.7575422133,-2.0602386548,1.2082100067,6.6993045914,-0.9794249155,3.192326637,-5.7834940239,0.4681244004,-0.535192838,0.4148875422,0.1382534115,14.9372453857,0.5572097889,0.4515508529,-0.1812212151,-1.2474687993,0.4231276068,-0.3752255932,3.2441398182,4.640186135,0.9573964758,-0.8151950172,-2.1340714604,-2.9137674788,0.0115385819,-0.0347669988,-1.4089263867,-0.14677595,0.7384165571,16.2566620509,1.420522536,-0.8449602315,-2.1513248001,-0.3876813524,-0.4416112048,1.8584087524,-1.9204838478,-3.2729017805,0.0163871514,-0.8278268434,0.5999559744,6.1028967524,-1.9007358159,0.4516391504,-0.8710273743,-2.2595253143,-1.8638693878,-1.9417159308,-0.9057060195,2.4264930158,0.1426697212,8.932793063,-0.4119805741,-7.6143330471,-4.8941130551,-1.3830341312,-1.0781214592,1.1980990786,6.3083818841,-1.2799068759,15.5961225366,-0.7466864513,2.3851048599,1.3038515375,2.9094826278,-0.1808519545,-1.7542748891,-0.7456865192,2.0692808285,-4.8225836008,0.5569899331,-2.3889370531,-0.8072077867,-1.2622544876,-0.2914521379,1.8017673479,0.8405661457,-0.7649653452,15.4666368611,-0.334134911
biasActivation=0,1,1
[BASIC:ACTIVATION]
"org.encog.engine.network.activation.ActivationSigmoid"
"org.encog.engine.network.activation.ActivationSigmoid"
"org.encog.engine.network.activation.ActivationLinear"
