encog,BasicNetwork,java,3.4.0,1,1507578650930
[BASIC]
[BASIC:PARAMS]
[BASIC:NETWORK]
beginTraining=0
connectionLimit=0
contextTargetOffset=0,0,0
contextTargetSize=0,0,0
endTraining=2
hasContext=f
inputCount=8
layerCounts=3,10,9
layerFeedCounts=3,9,8
layerContextCount=0,0,0
layerIndex=0,3,13
output=0.9166484582,0.1342908575,0.9987261236,0.0000146858,0.3201699125,0.0000679754,0.9992922153,0.1140237819,0.9999853636,0.0915465641,0.8580172613,0.0000005958,1,0,1,0,0,0,1,1,1,1
outputCount=3
weightIndex=0,30,111
weights=-23.7793609069,-0.3508619894,0.9106765207,-2.3464508877,-24.4523934917,-7.875219572,2.3522047653,7.2304754972,-9.6665349756,0.1091796096,-1.2909879734,4.45524276,-5.8893855126,-1.1202187018,-0.6045780773,4.8731714389,-3.3109208287,-3.9280363475,-0.588993001,-0.3513344381,-0.1412563151,18.2533923589,-0.0699067486,-6.813623803,7.6958525668,-4.6612460847,19.4923918508,-11.616740354,-7.3519907303,-1.5684704955,-22.1422960473,-2.7495633268,-12.1545916618,3.676943223,3.5494925602,0.0561238142,-4.6373356341,-24.9933567445,-0.4083338964,-2.7991550366,-10.4108035975,-12.9820908131,-10.406961849,-3.0494931634,5.8923115576,0.4370751082,6.6838853866,-4.8024908777,-35.2147100268,-1.2712017054,-5.293488105,3.9859699016,2.8658825538,-0.1698017549,-5.1503104265,11.3841509116,-0.1188981976,-4.1848434734,6.9484571126,-1.5155274603,11.3712645353,2.6131888507,-19.7442463774,0.3141825996,-30.968604782,-5.2599856531,-15.6917265553,-10.2864729504,-14.197665691,-3.2753486058,1.8857039803,2.8587399354,-4.1024442259,-4.512075303,-2.8942913933,16.4730487911,-0.9625853519,-1.198823998,-12.8331343587,-23.9311819367,-8.5017802182,2.3111505313,-35.2967965344,-1.4010829701,-12.3126486397,-18.4385825208,-27.3353860715,-11.761298331,-0.6384095418,15.1289925877,-3.1643977314,29.697225471,1.4394380174,-6.7812990789,1.1816184243,4.0559963099,-6.939638275,-7.41716444,-1.1655171469,-4.0471340072,7.0632322837,-1.6662577995,-18.4397840296,-1.3995766742,-8.7130976059,-2.786677779,-12.4481127702,-2.683718996,-7.0348311932,-36.1778381159,0.1514875073
biasActivation=0,1,1
[BASIC:ACTIVATION]
"org.encog.engine.network.activation.ActivationSigmoid"
"org.encog.engine.network.activation.ActivationSigmoid"
"org.encog.engine.network.activation.ActivationLinear"
