encog,BasicNetwork,java,3.4.0,1,1507560909938
[BASIC]
[BASIC:PARAMS]
[BASIC:NETWORK]
beginTraining=0
connectionLimit=0
contextTargetOffset=0,0,0
contextTargetSize=0,0,0
endTraining=2
hasContext=f
inputCount=8
layerCounts=3,10,9
layerFeedCounts=3,9,8
layerContextCount=0,0,0
layerIndex=0,3,13
output=0,0,0,0,0,0,0,0,0,0,0,0,1,0,0,0,0,0,0,0,0,1
outputCount=3
weightIndex=0,30,111
weights=-1.3137322295,1.612419379,0.2936259285,-1.369578605,-0.3682980864,1.7608584107,3.5903363786,-1.3384880307,-1.4176005143,-0.8461689924,1.1105009728,0.1347052296,0.0945370499,-7.4114015074,1.0426853327,0.3065572913,-7.9731756712,1.5715789005,1.2352721599,-0.7010263927,-1.6485892022,-0.7650398227,3.3272015109,-0.6163921185,-1.0109776455,1.0257617666,-1.0066720417,0.8221683992,0.8821943926,-0.7345646127,6.4822020844,-0.0143231566,0.7648827199,0.8151459162,-0.4556014824,0.039462635,3.7684827401,-7.1714336672,-1.1180122716,-1.8065035042,1.315108696,2.7918668941,-1.1001579917,-7.9653736362,0.1737262384,-0.5036915184,0.319155556,-0.2257007017,0.2786072927,-7.2621844649,-7.5933405672,-2.3352402594,0.4256376358,3.5700530456,0.9507203895,7.8839311803,0.1999304663,-6.595850663,0.5386564625,-2.2832261716,7.5005232367,1.9666100482,-0.6083874427,-3.2922631726,0.2144278287,-0.5702418186,2.1955853494,-0.0788768912,8.1904898174,1.1892690625,-0.8562957965,-3.3497185294,0.4179401937,-6.4408021197,0.9235705753,-0.5121116212,-3.0214940515,-0.0905991256,-7.1475752143,-7.9784164996,0.9892129074,-0.1503642787,7.6150910512,-0.1196694484,-8.0634490318,-0.3475204755,0.6771158371,-0.0922153668,-0.7677315977,0.1440486709,-3.6218810376,4.0309713012,-0.3418873046,1.7943590913,-1.3619113164,-2.3496766248,-0.1071658415,-0.6081262036,0.7097812122,1.306460274,-2.261072246,0.410299318,2.9317759287,0.8279645529,-2.4444476731,-0.0371665782,1.8449533628,-0.0585031539,3.5620902681,-1.1939530684,0.8395180351
biasActivation=0,1,1
[BASIC:ACTIVATION]
"org.encog.engine.network.activation.ActivationSigmoid"
"org.encog.engine.network.activation.ActivationSigmoid"
"org.encog.engine.network.activation.ActivationLinear"
