encog,BasicNetwork,java,3.4.0,1,1507578593170
[BASIC]
[BASIC:PARAMS]
[BASIC:NETWORK]
beginTraining=0
connectionLimit=0
contextTargetOffset=0,0,0
contextTargetSize=0,0,0
endTraining=2
hasContext=f
inputCount=8
layerCounts=3,10,9
layerFeedCounts=3,9,8
layerContextCount=0,0,0
layerIndex=0,3,13
output=0,0,0,0,0,0,0,0,0,0,0,0,1,0,0,0,0,0,0,0,0,1
outputCount=3
weightIndex=0,30,111
weights=-1.3861927236,-3.5533977454,-3.2276418462,-0.2608621093,2.8458695559,1.3623489515,-0.155410693,0.3041091843,-1.380348613,0.3270267966,-1.7262701336,1.1490295157,1.4745341949,3.8586839642,-0.9407771645,-2.9091027529,1.287701137,-1.3707387323,-0.2765634232,-1.3761974743,-2.8621381258,0.9659438314,-2.8985367897,1.2245274772,-3.1352887119,2.5916558366,-1.3757848791,-0.0121681997,-0.935397438,0.7549004293,-0.6187442787,0.8058266965,1.0698559854,2.2611515033,0.3011035143,-2.6149172006,-2.1532027882,-2.6434351249,-0.5074313286,2.3787063768,-1.5083117004,-3.0276899357,0.8561961848,1.301619054,0.8884723539,0.4931809466,-3.5760349017,-0.6172863892,1.1658486078,3.0769981811,0.7278923237,1.5709705586,0.6191513617,-2.8759004683,0.6664796423,-5.0690938531,-2.0392873839,3.2248464544,-0.6870400993,-0.1753571511,-0.6810125105,-2.1205616536,-0.0983527679,3.6322613566,-1.6247126618,-1.9366741846,-3.1285537408,0.5034703674,3.8437592494,-0.8932689571,-2.8188311994,-0.798515253,-2.7158581834,1.2419842557,-0.6502633846,-2.3707207385,-1.2500063899,-3.9568399144,0.5174319968,1.5176647203,0.0254974783,-1.0164422808,4.8419408861,0.262949422,1.2867293386,1.25604681,1.1623628404,-0.4034331429,-1.8037136903,-2.3987580017,-0.2941893443,-0.9954130065,-1.2962649309,-1.4377122196,-0.6608804466,-0.5333864234,0.9443513942,-0.3535248843,-0.5063179687,-0.9192087636,0.8232684384,-1.0879093074,-0.0072080562,0.3278215786,-0.226065867,-0.0269503075,1.2611098698,-2.1793516039,-0.1246877483,-2.1293174656,-0.9107810881
biasActivation=0,1,1
[BASIC:ACTIVATION]
"org.encog.engine.network.activation.ActivationSigmoid"
"org.encog.engine.network.activation.ActivationSigmoid"
"org.encog.engine.network.activation.ActivationLinear"
