encog,BasicNetwork,java,3.4.0,1,1507578652705
[BASIC]
[BASIC:PARAMS]
[BASIC:NETWORK]
beginTraining=0
connectionLimit=0
contextTargetOffset=0,0,0
contextTargetSize=0,0,0
endTraining=2
hasContext=f
inputCount=8
layerCounts=3,10,9
layerFeedCounts=3,9,8
layerContextCount=0,0,0
layerIndex=0,3,13
output=0,0,0,0,0,0,0,0,0,0,0,0,1,0,0,0,0,0,0,0,0,1
outputCount=3
weightIndex=0,30,111
weights=-0.0377841643,1.8876507031,-0.7436904179,5.1367236793,0.0551453216,1.6030975432,-1.0962428239,-6.9167177822,1.0996008715,-0.6053465891,2.8271213786,-1.597730298,1.5085356214,-1.829489246,-0.9374336491,-1.3820367742,-0.2779837827,-0.6789320522,-1.9314985873,0.5095555905,0.4180242595,1.4307070798,1.550260065,-2.7254673814,-0.7410631856,2.8948083534,-3.5309252897,1.1144413498,-0.4374366407,0.0752787753,9.864563747,-0.2068404168,0.9496327952,-3.1782437953,-3.7977778256,0.4253948865,1.3581940825,-1.9869777333,-0.1505242053,-10.5877024436,-1.9174396199,-0.6360625407,-3.8730901407,-0.7905447232,1.3733214948,-3.6558304959,10.8059698819,0.9486868673,2.248352317,-4.4429939892,-3.6710005619,-0.103360464,-0.1774382662,0.8916186267,0.505664932,-3.4047573346,0.0730450182,-1.3232240963,-0.462148591,2.0097504033,0.016413049,-0.7385279786,-0.5031901958,-6.2745777505,2.7100732101,-0.196335901,-2.4381124521,1.2888388434,0.5411724321,0.6112380092,0.3094126299,-0.6986236589,-1.3534486759,3.5726699536,0.6559732229,-4.818134254,-0.7241897061,-7.2880370884,-0.4736552097,1.1745632991,4.5824577346,-0.7839814349,11.2450418848,-0.7474169893,-0.3209594684,1.7171031687,2.3964520909,1.7817324438,0.0569797533,-1.9793146569,0.6171303237,-11.3485120742,-0.1169452,1.7850307823,-1.5662344862,-0.3190996595,3.7978254612,3.6528592553,0.911300365,-0.0128288286,-3.7065397733,-1.3065647111,-10.4240004857,0.2758930949,0.9190593874,0.599902926,-0.6335323984,1.1213817016,-6.3841513968,3.0689264858,0.2247324899
biasActivation=0,1,1
[BASIC:ACTIVATION]
"org.encog.engine.network.activation.ActivationSigmoid"
"org.encog.engine.network.activation.ActivationSigmoid"
"org.encog.engine.network.activation.ActivationLinear"
