encog,BasicNetwork,java,3.4.0,1,1507502972867
[BASIC]
[BASIC:PARAMS]
[BASIC:NETWORK]
beginTraining=0
connectionLimit=0
contextTargetOffset=0,0,0
contextTargetSize=0,0,0
endTraining=2
hasContext=f
inputCount=8
layerCounts=3,10,9
layerFeedCounts=3,9,8
layerContextCount=0,0,0
layerIndex=0,3,13
output=0,0,0,0,0,0,0,0,0,0,0,0,1,0,0,0,0,0,0,0,0,1
outputCount=3
weightIndex=0,30,111
weights=-0.3367322638,-2.1302138131,-1.2474591481,-3.9622634287,0.4360609795,-1.5356393654,0.9024664467,-2.1041914889,0.9522187629,1.7203736499,-1.6537127206,2.7555649603,-0.177947651,2.2101656885,-0.5486965162,1.5067948082,-0.8394604947,-2.7112356005,-2.7070674158,-0.223569653,2.4989348454,1.4035477685,1.7946086285,-3.0714338178,2.4721533317,1.4486557163,0.5893164797,0.7010324725,-1.9571790925,-1.018127711,-1.0734773148,-1.1348322602,-3.3521545334,-0.162118896,1.6777892145,1.4032159511,-0.021879455,2.7090158048,-1.209937711,2.8359541071,-2.0387119563,-3.1417674031,-1.4307106742,0.1380839775,1.183559892,2.3727552689,-2.9725682038,-1.7039379837,-0.3788307602,-1.9743014925,-3.712297805,-0.9404696855,0.8418525582,0.7029241201,-0.1652275538,-0.4151692403,-0.3715203711,1.9693335579,2.1986752101,0.8897611553,1.8266619945,1.5428893809,-1.9830131814,1.3560451717,-4.9087108022,-1.8942694989,0.2774875872,-1.7919024512,-3.1292808982,-0.8753327096,0.4891626268,0.7329991113,0.9780832045,2.2747369612,-0.4478069767,2.3983604919,-2.2791526991,-3.0504439804,-0.6480961937,0.2328741671,0.7833984064,0.4202576016,-0.7751912374,-1.2414337545,-1.1141149957,0.4372429169,-1.5268149727,-0.4078362995,-0.6940250281,-0.9191425065,0.5571377774,0.8770662747,-1.3627075007,-1.7975466491,-0.7416982788,-2.5191256194,1.7889727447,2.2800491741,-0.3371312364,-2.2522025596,0.5309440958,-0.5907074745,-2.3206749878,-0.1964484314,1.8820859495,0.5650268263,0.216529085,-0.6997367855,-4.7373044592,0.0507205746,0.3698781637
biasActivation=0,1,1
[BASIC:ACTIVATION]
"org.encog.engine.network.activation.ActivationSigmoid"
"org.encog.engine.network.activation.ActivationSigmoid"
"org.encog.engine.network.activation.ActivationLinear"
