encog,BasicNetwork,java,3.4.0,1,1507147209922
[BASIC]
[BASIC:PARAMS]
[BASIC:NETWORK]
beginTraining=0
connectionLimit=0
contextTargetOffset=0,0,0
contextTargetSize=0,0,0
endTraining=2
hasContext=f
inputCount=7
layerCounts=3,10,8
layerFeedCounts=3,9,7
layerContextCount=0,0,0
layerIndex=0,3,13
output=0,0,0,0,0,0,0,0,0,0,0,0,1,0,0,0,0,0,0,0,1
outputCount=3
weightIndex=0,30,102
weights=-2.76322689,-3.0629525207,1.3673119837,0.4611394258,-1.8487940774,0.0814385207,0.5726630018,-1.217748578,0.0200319208,0.5427401124,1.8667377619,0.588179523,-3.4430464948,0.4176883137,-0.222231929,0.9461585996,2.1783346797,-1.6132522348,-1.1572703472,-0.439067504,-1.2268336002,2.9170681866,-1.4568930497,-2.8136646393,-1.914057558,-1.1053997337,0.6521797893,1.2321435158,-0.9464003418,0.3169177909,1.0884444025,2.4633969948,-1.3172904599,-0.3518260558,0.0671158529,-1.8111634772,2.7962742146,-1.3796256016,1.9349494551,-0.9824233978,-3.9859712882,0.6153005252,2.2217095848,1.0138941954,1.6085284047,-0.4782281517,-2.5654027023,-0.0674919344,2.0521351042,1.7415361322,0.9773808542,-0.863625704,-3.8313209133,0.3647081125,-0.4557070342,1.5186614094,2.0472919517,1.1392300571,-1.7409888632,-1.9184520874,-0.1669559875,0.2011078348,-1.0751646155,1.8033375585,-0.9461238119,1.2127070001,0.2121781835,-2.3755190604,0.9869913269,-0.8326649915,0.3577271402,1.403885041,0.9442013168,-0.5711213185,-0.833712941,-0.3673297982,0.2637461202,-1.8026339658,1.7542681579,-0.8457908241,-0.3972571974,-0.981525525,-1.9093234933,0.1669538614,1.2970146458,-0.4603022747,-0.8401005949,-1.3833535343,-1.6167410924,1.0192006574,2.0932544357,-0.3663011322,-0.6131574817,-0.71505278,-1.9314636725,0.7095242757,0.4313301692,-0.2199500922,0.7495078342,-0.8040146224,-1.062169595,-1.3984657018
biasActivation=0,1,1
[BASIC:ACTIVATION]
"org.encog.engine.network.activation.ActivationSigmoid"
"org.encog.engine.network.activation.ActivationSigmoid"
"org.encog.engine.network.activation.ActivationLinear"
