encog,BasicNetwork,java,3.4.0,1,1507129840445
[BASIC]
[BASIC:PARAMS]
[BASIC:NETWORK]
beginTraining=0
connectionLimit=0
contextTargetOffset=0,0,0
contextTargetSize=0,0,0
endTraining=2
hasContext=f
inputCount=7
layerCounts=3,10,8
layerFeedCounts=3,9,7
layerContextCount=0,0,0
layerIndex=0,3,13
output=0,0,0,0,0,0,0,0,0,0,0,0,1,0,0,0,0,0,0,0,1
outputCount=3
weightIndex=0,30,102
weights=2.0784741976,0.252288702,-0.9942126837,1.1539189422,-1.0889044092,-0.5379037597,-3.2140364131,-1.2106228098,-0.385796863,-0.4008439504,-1.7642347873,-0.8529092065,-2.6296385832,-1.1711864386,-2.6224298807,0.8877578069,2.9449464166,-0.3358832342,-0.7866566493,0.9638499464,-2.229835317,0.5703362737,-0.4314693958,-2.732262949,0.0241976858,3.1883791713,-1.0092634489,0.7472475231,1.7364517154,-0.3232201599,-1.8826706262,-0.1547459207,2.4675561257,-0.0375150506,-0.9619720489,-0.77338304,-3.1614197669,-0.0452300571,-0.6506822067,-1.0000900439,-0.0465914749,-0.812363159,0.8375957146,0.3776527577,-0.8456164751,-1.5343496137,-1.405481361,-0.1909330735,-0.67582821,1.2262921212,1.9311603567,-1.4009569004,-2.2166727647,-0.3213109795,-2.0785604809,2.1271978381,2.2653041958,0.4265560168,-1.0541976604,-0.6514150723,-1.9343232673,0.066059166,-1.8450196457,-0.8046132234,-0.9831992956,1.346897668,1.7754559875,-0.9396438024,-2.3756740206,0.0019981355,0.5548639818,-2.9609121631,-3.0230584862,-1.4419910318,0.5730551531,1.3462450627,0.8892567919,-0.1585734955,2.2002224023,2.8632045864,-1.2447218509,-1.0182681254,-0.6567126995,-1.8896279979,2.9118444044,-0.896122002,-0.4129157522,-1.1965047671,-1.8312848231,0.4513461192,0.9921021052,-0.4941329066,0.3962399305,-0.6439593488,-0.2474886555,-1.4430374096,-1.4205094014,-0.1460167735,1.4374320542,1.4384070352,-0.625928918,-1.631353993
biasActivation=0,1,1
[BASIC:ACTIVATION]
"org.encog.engine.network.activation.ActivationSigmoid"
"org.encog.engine.network.activation.ActivationSigmoid"
"org.encog.engine.network.activation.ActivationLinear"
