encog,BasicNetwork,java,3.4.0,1,1507149615790
[BASIC]
[BASIC:PARAMS]
[BASIC:NETWORK]
beginTraining=0
connectionLimit=0
contextTargetOffset=0,0,0
contextTargetSize=0,0,0
endTraining=2
hasContext=f
inputCount=7
layerCounts=3,10,8
layerFeedCounts=3,9,7
layerContextCount=0,0,0
layerIndex=0,3,13
output=0,0,0,0,0,0,0,0,0,0,0,0,1,0,0,0,0,0,0,0,1
outputCount=3
weightIndex=0,30,102
weights=0.003511786,1.0110023965,2.1726407875,-1.291185136,-2.4249720594,-2.3569239042,-1.0075509955,-1.3880311685,-1.0319622516,0.321084576,-1.4813288331,-0.024260605,-1.6814583387,1.9080257522,-0.1340004167,0.1048353648,-1.6201495646,3.0337060835,-1.4461479737,-0.8037011591,0.1590566035,-2.7432554345,-1.0572153588,-0.1243949411,-1.2757609158,3.0936429365,-0.4284671691,0.2531577859,-1.9234539414,0.5017151108,-1.348439004,-0.6519021457,0.0045037678,-0.3255353685,0.9120367099,-0.4546650607,-1.5180723377,-0.3912062879,-0.0776292539,1.3817727679,3.0996249765,-0.8769328315,-1.1439200793,-2.0825086252,-0.719911962,0.0124101695,-1.9017380521,-1.4381687073,2.3013604599,0.1042222103,-0.4153572672,-0.7348985537,-2.0288318918,-0.1099666946,1.5180676219,0.4608623349,-0.4793869196,-1.4865020807,-0.5210479778,-1.5042176333,1.9523363052,-0.4553863811,0.2188111465,1.545423491,-1.0607906048,1.1646800393,0.5765415888,-2.2870984433,0.8707683563,-0.7524674384,1.1196857729,-1.7525197453,-3.504724869,-0.7294667331,2.1673078924,1.2121054461,-0.1202558094,-0.4220705193,-0.4319152898,0.4897916467,-0.7082206829,0.3993004462,1.6439920217,-1.6366379881,-1.6010097762,-0.7287189251,1.8361071482,1.0382528878,-0.8732272647,-0.6430094857,-1.5735878887,-0.0277867393,3.1826505646,-1.2007132017,-0.4926009959,1.8211370289,0.3134874693,1.4955421078,0.3454936491,-1.7752741137,-1.4577339295,-1.3453729325
biasActivation=0,1,1
[BASIC:ACTIVATION]
"org.encog.engine.network.activation.ActivationSigmoid"
"org.encog.engine.network.activation.ActivationSigmoid"
"org.encog.engine.network.activation.ActivationLinear"
