encog,BasicNetwork,java,3.4.0,1,1507032706995
[BASIC]
[BASIC:PARAMS]
[BASIC:NETWORK]
beginTraining=0
connectionLimit=0
contextTargetOffset=0,0,0
contextTargetSize=0,0,0
endTraining=2
hasContext=f
inputCount=7
layerCounts=3,10,8
layerFeedCounts=3,9,7
layerContextCount=0,0,0
layerIndex=0,3,13
output=0,0,0,0,0,0,0,0,0,0,0,0,1,0,0,0,0,0,0,0,1
outputCount=3
weightIndex=0,30,102
weights=-1.2138022237,-1.3283781177,-0.7428839992,-1.1184955486,2.6327943315,-2.001407176,-1.3668260789,-1.8309005252,-1.0547357198,0.9803268176,-1.3933991706,-0.2418155384,-1.4951786035,-1.7296709545,-1.5566068881,3.9273560542,1.1345154253,0.4386389219,-0.9627732178,-0.6661856163,-0.650684927,-2.8928287518,0.3166107893,0.1036888753,-1.1839981006,-0.8637556083,2.8754810247,2.3629784482,-0.0293532615,-0.8037425015,-1.5850179482,0.1121487668,-0.9060313265,0.4918969407,1.3685182081,-1.8965956597,-0.1084842065,-0.5356499337,-0.5998201742,2.8941471444,0.2418907574,0.4777902975,-1.0323758161,-2.0812599078,-0.5675553735,0.158253519,-0.7672219309,-0.4115075339,-1.341062201,1.1514390041,0.9453835678,-0.045130958,-1.0248428204,-0.6471069699,-1.4214483512,0.1667839607,-1.0486902686,0.7067336941,1.5774564342,-0.2444685612,-0.7533224321,-0.8440776969,-1.1539934863,-1.3597374568,2.2691777507,-0.1138718016,-0.7546300958,0.6570121699,-1.9722073198,-0.7754487203,2.5902185347,2.6831985576,-0.8068350478,-1.6848261534,-2.3380521993,-0.4866465486,3.119220385,-1.5618478955,0.695738154,-1.3332094196,-3.9607142185,-0.8554461189,0.4920544351,1.49759464,1.1432918634,-0.4608141094,1.434075746,-1.0135564914,-3.3639771052,-0.2314425017,1.0542663446,1.0705152702,0.0873384793,-0.6791810508,-0.8044365658,0.428753821,-1.8175576724,0.079305736,-0.0246263786,-0.2286593532,-0.7670419718,-0.1027111299
biasActivation=0,1,1
[BASIC:ACTIVATION]
"org.encog.engine.network.activation.ActivationSigmoid"
"org.encog.engine.network.activation.ActivationSigmoid"
"org.encog.engine.network.activation.ActivationLinear"
