encog,BasicNetwork,java,3.4.0,1,1507125770714
[BASIC]
[BASIC:PARAMS]
[BASIC:NETWORK]
beginTraining=0
connectionLimit=0
contextTargetOffset=0,0,0
contextTargetSize=0,0,0
endTraining=2
hasContext=f
inputCount=7
layerCounts=3,10,8
layerFeedCounts=3,9,7
layerContextCount=0,0,0
layerIndex=0,3,13
output=0,0,0,0,0,0,0,0,0,0,0,0,1,0,0,0,0,0,0,0,1
outputCount=3
weightIndex=0,30,102
weights=-0.5115283627,-2.0051375814,0.5919008589,2.798228288,-0.3744682506,-0.5362626179,-0.3195494367,-2.119858006,-1.468818581,-0.6417121508,-1.2053337415,2.8003532628,-2.4921102278,1.1650378793,-2.3940882977,0.4879505064,-0.11875519,1.3330257312,1.474691265,-1.1283100114,1.1901130198,1.0320784779,-2.0771152643,-2.1046126679,-0.653888623,1.2456101053,3.288468328,0.0020848399,-1.1981324746,-0.8326423462,-1.2342678862,-1.1206515733,-1.5942747035,0.2820373519,0.9556256841,0.7025405733,-1.1709947816,-0.7409377565,2.3429819321,0.626311549,-1.7949473067,-1.1111898463,-0.6975729318,-0.4254667594,3.2908313687,-0.7092089206,-1.5709957437,0.814432899,2.6047785215,1.3814069763,0.1429578245,-1.2277479072,-2.1605199764,-0.4524728758,0.1563559136,-0.4246924027,3.3919347354,-1.726708563,-3.082953497,-1.2765526097,0.1087635234,0.3685341579,-1.2470405906,0.7395620632,0.0166639953,0.0062552916,1.0432496643,-0.7894791102,-2.6346945,-0.1540082064,1.2976502103,-1.8452592189,-1.4705699707,0.4658866794,-0.0837023257,-0.0485697742,0.4270388209,-0.8543043976,0.4427971003,-2.8606681713,-2.3840412267,-0.7556821126,1.5292359717,2.2089246287,0.2520653041,-0.9746142386,1.4519818779,1.3026749315,-1.3761930588,0.5334609781,0.0633034133,-0.4028605412,1.9075594322,-0.8411859717,0.6637000033,1.9666553883,-0.5367103919,-0.9685667132,-1.0684782809,-1.7475844134,1.2518210419,-0.8748260778
biasActivation=0,1,1
[BASIC:ACTIVATION]
"org.encog.engine.network.activation.ActivationSigmoid"
"org.encog.engine.network.activation.ActivationSigmoid"
"org.encog.engine.network.activation.ActivationLinear"
