encog,BasicNetwork,java,3.4.0,1,1507031159429
[BASIC]
[BASIC:PARAMS]
[BASIC:NETWORK]
beginTraining=0
connectionLimit=0
contextTargetOffset=0,0,0
contextTargetSize=0,0,0
endTraining=2
hasContext=f
inputCount=7
layerCounts=3,10,8
layerFeedCounts=3,9,7
layerContextCount=0,0,0
layerIndex=0,3,13
output=0,0,0,0,0,0,0,0,0,0,0,0,1,0,0,0,0,0,0,0,1
outputCount=3
weightIndex=0,30,102
weights=-0.5305930131,-0.9389575389,2.4505922835,-1.6242052804,-2.5205514507,1.192327329,1.3658527519,-1.4893407881,0.5721398977,-1.0889666291,-0.5432471955,1.0247400645,-1.0362589632,4.0119758738,0.2924369475,-1.8518583958,0.7110598731,-2.0823622512,0.5220100834,-1.3621839146,-1.8806070666,-1.2602341213,-0.2604751017,1.5836894074,-0.9089849641,-1.4468190506,-3.2175127937,0.6354968093,-1.3567953541,1.9207511255,-1.2812718149,2.3985202514,0.7794945315,0.1040433596,-0.0578073058,-1.5203037212,-0.4727054322,-1.116809223,1.067372414,1.7374646619,-0.1037109037,0.5657836473,-1.1950402729,-1.7911196851,0.6372882175,-1.2691682238,-1.4653620776,-1.1737196407,1.699276393,-0.3033175447,-1.5698358399,0.5695003627,-1.3616306878,-0.8755525834,3.3000095164,0.2500099693,-1.3694609598,-1.0360130419,-1.0298972263,0.2688948694,4.0349419988,-1.1302750596,0.6060646106,1.7126569099,-1.7305794494,0.4873422717,0.4236841484,-1.9040464348,1.0322981681,-0.2252735942,-1.8596155235,0.3985178368,2.1784184333,0.9288369937,-0.601493032,-0.8482536606,-1.9629209488,-0.5794337296,0.0014603785,2.0059478521,3.6493000681,-0.0863659857,-2.0482115034,-2.3160076997,-0.5007630454,-0.0511036512,-1.5507785022,0.6714264171,-0.9989766656,0.4021988651,2.2223944474,-0.5899300112,-1.3789102566,-0.295996352,-0.9220073284,0.9742202542,1.2878430329,-1.2708310055,-1.5709951591,-0.9446050004,-0.0664545736,-0.7347019628
biasActivation=0,1,1
[BASIC:ACTIVATION]
"org.encog.engine.network.activation.ActivationSigmoid"
"org.encog.engine.network.activation.ActivationSigmoid"
"org.encog.engine.network.activation.ActivationLinear"
