encog,BasicNetwork,java,3.4.0,1,1506957293083
[BASIC]
[BASIC:PARAMS]
[BASIC:NETWORK]
beginTraining=0
connectionLimit=0
contextTargetOffset=0,0,0
contextTargetSize=0,0,0
endTraining=2
hasContext=f
inputCount=7
layerCounts=3,10,8
layerFeedCounts=3,9,7
layerContextCount=0,0,0
layerIndex=0,3,13
output=0,0,0,0,0,0,0,0,0,0,0,0,1,0,0,0,0,0,0,0,1
outputCount=3
weightIndex=0,30,102
weights=-1.5947894508,0.9022823331,-1.5720825162,-2.1246122432,0.8204161517,-1.3087600501,-2.4007839753,-0.5205697833,0.9229132336,0.6361019162,2.3163296934,-2.3844274457,-3.2179333581,1.0513726852,-0.2860351722,1.2690277647,0.4945317969,1.0258809543,1.6630390312,-1.0619322899,2.2865683375,-1.1157129046,1.665838028,0.2967374897,-2.7000283988,-1.4332383312,-1.6781500512,1.1455249703,-1.9183101276,0.378459375,2.2316504637,-0.7820473777,-2.7728618638,-0.5192578464,0.1367313561,0.9595078064,2.5783656727,-0.7915309561,-1.3484507425,-0.4820232755,1.6234988782,1.2580429925,-0.2714467919,-1.1381317777,-2.4400200252,0.3731084575,-1.9935882949,-0.3334668505,-1.9868773659,0.7830125213,2.7092817079,-0.3587305959,-2.7773856766,0.007848727,1.1490534654,0.6467412449,-1.7814849497,-0.3341880308,0.741523591,-1.0563369667,1.95963803,-0.1543963003,-0.3835525213,2.0415415315,2.4278199988,0.7900542527,-0.9179320702,-1.5825038641,-0.8978960273,-0.1791368754,0.0988493557,2.1986578497,-0.4716953979,0.0617656513,-0.72692478,-1.691468079,1.3783220413,-1.4808573471,-0.0706608955,2.6416961992,-1.5844065998,1.0774668675,-0.0126278845,-2.0860858215,1.0092038611,-0.6340842919,0.4599643465,-0.2085913946,-2.2564736531,-0.8109632942,-1.0612594153,0.5920449094,0.8733388479,-0.6075185823,0.1856273002,1.3276506545,1.9077837063,-1.3734285339,-2.2006456467,-1.295137742,0.6371587055,-1.0763079781
biasActivation=0,1,1
[BASIC:ACTIVATION]
"org.encog.engine.network.activation.ActivationSigmoid"
"org.encog.engine.network.activation.ActivationSigmoid"
"org.encog.engine.network.activation.ActivationLinear"
