encog,BasicNetwork,java,3.4.0,1,1507385915245
[BASIC]
[BASIC:PARAMS]
[BASIC:NETWORK]
beginTraining=0
connectionLimit=0
contextTargetOffset=0,0,0
contextTargetSize=0,0,0
endTraining=2
hasContext=f
inputCount=7
layerCounts=3,10,8
layerFeedCounts=3,9,7
layerContextCount=0,0,0
layerIndex=0,3,13
output=0,0,0,0,0,0,0,0,0,0,0,0,1,0,0,0,0,0,0,0,1
outputCount=3
weightIndex=0,30,102
weights=1.1995067012,-1.5443439895,-1.6586102287,-2.0188425684,-1.7354454391,-0.2602977173,-1.3620062068,2.5619378779,-0.5592175863,-0.1231565102,0.7646622062,-1.3939127858,-1.2346457595,3.1206993761,1.4682938813,1.9380841659,1.8443288065,-1.0752033062,-1.7578461453,-1.874089453,-1.6249965986,1.6666469584,-2.5583549071,-1.4039585769,2.1721238631,2.5539344183,-0.0305857806,-0.8306354149,0.2987342618,-0.8346612712,-0.1485109111,0.4353704111,2.133457747,-1.1894619293,-0.8592380512,-1.1027495204,0.6150627855,-0.4794509054,-0.8421947502,-1.3999012718,-2.1109664902,-0.0745957863,1.9078345936,-0.4838087332,-0.3602790866,0.1650653799,-0.2082601131,2.3666199561,0.3104758113,2.0063489636,0.5098361447,-2.5602352345,-1.0091235318,-1.4411977939,0.9407836344,1.7751745087,-0.9170563529,-0.5222524643,-1.8973621116,-1.6060008769,3.2716060867,-1.1527169707,2.2492818426,-1.3657571839,-2.713915658,0.0109770885,0.9154793609,1.2621106084,1.7280855422,-1.4915065214,1.5290449632,-1.7541676755,-3.1889618488,-1.0565147072,-0.279938305,1.8041359797,1.5023512236,-1.492466447,1.4488954472,0.6612709589,-0.9205980576,-1.105305012,-0.1163979773,-0.659605893,2.4714293874,-1.0799887442,-1.4956109744,-1.8864573597,2.0283648369,0.3502181048,-1.5464128095,0.1559985033,-1.0329273659,-0.4028252917,-0.8750162265,0.0125705628,-0.4408367817,0.9641690619,1.6317650986,-0.2482031734,-1.0883253511,-0.893399792
biasActivation=0,1,1
[BASIC:ACTIVATION]
"org.encog.engine.network.activation.ActivationSigmoid"
"org.encog.engine.network.activation.ActivationSigmoid"
"org.encog.engine.network.activation.ActivationLinear"
