encog,BasicNetwork,java,3.4.0,1,1506952292265
[BASIC]
[BASIC:PARAMS]
[BASIC:NETWORK]
beginTraining=0
connectionLimit=0
contextTargetOffset=0,0,0
contextTargetSize=0,0,0
endTraining=2
hasContext=f
inputCount=7
layerCounts=3,10,8
layerFeedCounts=3,9,7
layerContextCount=0,0,0
layerIndex=0,3,13
output=0,0,0,0,0,0,0,0,0,0,0,0,1,0,0,0,0,0,0,0,1
outputCount=3
weightIndex=0,30,102
weights=0.4050463282,-0.0598096588,1.7105989889,-0.7035444319,0.8494836467,-0.2306622179,-1.6975099454,-2.6623000372,-2.9318147107,0.0549644259,-0.4536022054,0.2512811018,-3.2087746581,-3.4426372094,-0.0748153194,1.3670293227,-0.5454758148,-0.9713750608,2.0590059493,0.708717285,-0.3172711853,-3.5893994462,0.7597165767,-0.8396824226,-2.3760327129,2.5568502019,0.9100613056,1.228801439,0.4781137554,-0.1768753627,-0.2701760368,-0.871901398,0.3614071351,0.7793697948,-0.4828136616,-0.7308315871,-0.6404170001,-1.6316347564,-1.1452146721,2.8252578825,2.1292831324,0.9862657831,-1.2917365782,-2.5232636472,-0.4743237024,0.3365932344,-2.3476268333,-1.2760402293,0.7023496709,-0.0348451954,0.7892035058,1.1751221324,-3.6363307018,0.4045268607,-1.9292269326,0.5630513103,0.2717822561,1.5492244154,1.530787859,-1.1222936395,-3.8730684091,-0.7053573554,-1.7516190101,1.2561335591,2.144153256,0.4875864487,-1.5643169949,-0.7358371106,-0.7097447176,-0.4956902591,1.2703037096,-2.2749176868,-2.5719528069,-0.6277692444,-0.0752239536,1.2618323462,1.1354295163,-0.6555931326,-0.5487225375,-0.3386341976,-2.0225171249,0.3853772064,1.536901511,0.1233917818,0.2312545245,-1.5514943319,-0.1070363663,-0.7947383799,-2.885347436,1.0290968493,2.2765050409,-0.4777628612,-0.2511298545,-0.5472118153,2.2908834505,1.2669156807,-1.8453144788,-0.6479098882,-1.0165935648,-1.0032221884,2.5822838035,-0.2414121791
biasActivation=0,1,1
[BASIC:ACTIVATION]
"org.encog.engine.network.activation.ActivationSigmoid"
"org.encog.engine.network.activation.ActivationSigmoid"
"org.encog.engine.network.activation.ActivationLinear"
