encog,BasicNetwork,java,3.4.0,1,1507148874740
[BASIC]
[BASIC:PARAMS]
[BASIC:NETWORK]
beginTraining=0
connectionLimit=0
contextTargetOffset=0,0,0
contextTargetSize=0,0,0
endTraining=2
hasContext=f
inputCount=7
layerCounts=3,10,8
layerFeedCounts=3,9,7
layerContextCount=0,0,0
layerIndex=0,3,13
output=0,0,0,0,0,0,0,0,0,0,0,0,1,0,0,0,0,0,0,0,1
outputCount=3
weightIndex=0,30,102
weights=-1.4219672126,0.5425358779,2.1176239286,-0.9903228852,2.5196689866,-1.6433945351,-0.6323107754,-0.8787803261,-1.636678511,-1.3291479421,1.1074452734,-2.8186715467,-0.7940033362,-1.0505917084,-2.1601055933,0.4537713374,1.5550537724,-0.4784897264,-2.8701020741,1.7976168997,-1.7761092088,-1.8262419715,-2.4940558607,2.3503524167,-0.968226299,-2.4669155535,-0.468299019,0.7803284473,0.2979831872,1.4978834477,0.2114433281,2.073168878,0.1569317357,0.4747939709,0.0581316106,-1.8274022397,1.1850126734,-1.363821663,-2.2112503353,0.5678927158,2.1464334241,1.7872311729,0.5780691133,-1.3762177216,-3.6762778388,-0.3668335877,-2.4997454071,0.2146229331,3.2062095827,-0.5472888258,-1.3301869041,-1.5454673086,-2.2588653461,0.1147251506,-0.4047491486,-1.6138966261,-2.0469153767,-0.9508811178,1.6933665776,1.0173747107,-0.2922879551,-0.6572423616,-2.7005672525,-1.188650202,2.6397910458,0.2386195541,-0.4818401837,-0.5411570623,-3.0598066216,-0.346739025,-0.6236009823,2.8657133999,0.1890875632,0.3717464984,0.0595438762,-2.2311975826,0.3332861959,-1.106959223,1.7685003736,0.2857127491,0.5040744784,-0.9728562025,-1.3040584758,-1.3512136429,0.6757617076,-0.7965540613,0.3540505068,-1.3832003672,-1.0079011213,0.428861016,0.9654626245,-0.6908347024,-0.407392163,-0.6519846388,-1.6313825988,-0.1435968156,-2.0937522866,1.2747904899,1.6994685918,-1.5627444633,-2.3024802234,0.4643869726
biasActivation=0,1,1
[BASIC:ACTIVATION]
"org.encog.engine.network.activation.ActivationSigmoid"
"org.encog.engine.network.activation.ActivationSigmoid"
"org.encog.engine.network.activation.ActivationLinear"
