encog,BasicNetwork,java,3.4.0,1,1507468451847
[BASIC]
[BASIC:PARAMS]
[BASIC:NETWORK]
beginTraining=0
connectionLimit=0
contextTargetOffset=0,0,0
contextTargetSize=0,0,0
endTraining=2
hasContext=f
inputCount=8
layerCounts=3,10,9
layerFeedCounts=3,9,8
layerContextCount=0,0,0
layerIndex=0,3,13
output=0,0,0,0,0,0,0,0,0,0,0,0,1,0,0,0,0,0,0,0,0,1
outputCount=3
weightIndex=0,30,111
weights=1.7907796821,2.4254375046,-1.2414128286,-2.1293494409,-1.5167863868,-1.8710194313,-1.6643303201,-3.2358985013,-0.7486524515,0.9288391907,-0.5215750293,-1.0271096812,-1.1586444609,-0.3379568922,-1.749363835,3.7774411183,-0.6674451734,3.0047652159,-1.9423877396,-1.4169952995,3.3939268178,-2.4933135899,-0.135314614,-2.3064918076,2.4570149704,-1.2890624665,0.7825394911,0.1239653645,-2.1079355713,0.0485401901,-0.2269805122,-1.4520606654,-3.7119899627,-0.7704143855,-0.970892061,1.2751368424,1.9981938615,2.8643264157,-1.1469560061,-1.1366043952,-1.1697731479,3.6957947915,0.0629235095,-1.9298863673,-0.8927313505,-2.1817197997,1.2067311191,-0.8247344922,-0.2341620982,-0.1064887262,-1.2056867299,0.7422735311,0.6837886014,-0.7628805806,-1.938132177,-0.8872101185,-1.018097946,-0.3030658816,1.6333178931,0.5820299498,1.7996409639,1.0045640388,-3.0546435157,0.1819039613,-2.6930836409,-1.5514693901,-0.804069883,-1.7501430227,-3.3195911036,0.5321382795,1.9640078424,1.5210358235,-1.237248916,2.0541866909,-1.2862914824,2.8473454208,1.1294204905,0.5088792216,-1.6660705993,-1.4006621908,-0.9848061729,2.8714851153,-4.9068226077,-2.055814658,-0.7742845454,-1.0792781276,-1.934831205,0.7138382458,1.2525492553,0.39828377,-0.2517226522,-1.3503507267,-1.1777747977,3.7906564044,0.2627706346,-1.6099490674,0.504814331,-0.0602331048,0.2275288764,2.2233326871,-4.8231544883,-1.3361965613,-1.45058958,1.7151229952,0.1176942565,1.7227628859,0.0971097688,-2.5671475432,-2.633109098,-0.9468522197,-1.053271556
biasActivation=0,1,1
[BASIC:ACTIVATION]
"org.encog.engine.network.activation.ActivationSigmoid"
"org.encog.engine.network.activation.ActivationSigmoid"
"org.encog.engine.network.activation.ActivationLinear"
