encog,BasicNetwork,java,3.4.0,1,1507497376265
[BASIC]
[BASIC:PARAMS]
[BASIC:NETWORK]
beginTraining=0
connectionLimit=0
contextTargetOffset=0,0,0
contextTargetSize=0,0,0
endTraining=2
hasContext=f
inputCount=8
layerCounts=3,10,9
layerFeedCounts=3,9,8
layerContextCount=0,0,0
layerIndex=0,3,13
output=0,0,0,0,0,0,0,0,0,0,0,0,1,0,0,0,0,0,0,0,0,1
outputCount=3
weightIndex=0,30,111
weights=-1.3205608292,-0.8956953691,1.5716862584,0.3666449374,-3.2781928679,-2.8026644752,1.4238569145,1.7519180793,-2.7243583697,0.634085809,-1.235577858,-2.1716741528,-0.3773823756,-0.1442338198,2.4757191014,-0.9966712804,-3.1411351546,-2.4442851068,2.2744487428,0.1763840817,0.0631449457,0.8517166858,-2.9683313973,-0.0201739872,-3.7383068027,0.8519843016,-2.5082910654,1.1816905739,1.7443668866,1.2147553956,-0.06098036,-0.8571113509,-1.2307902145,1.2941781665,1.4431099091,-1.5334881566,-1.4982019868,-0.5913528684,-1.1113225366,-1.2501156933,-1.2010038426,-1.5131651814,1.1680735715,2.3700376695,-0.8940259568,-1.6549368174,0.5450028472,-0.6839086083,-1.4798997873,0.4027675372,3.2601183207,-0.6245225044,-1.2114480112,-0.481872138,-2.9669004647,-1.5893877703,-1.4661199035,-0.2599499837,-0.0435465562,0.0404090978,-1.3169775475,-0.2468573607,-0.0452984266,-0.9653947369,-0.1751360785,-2.3412331836,2.3777945011,2.8460655586,1.8532519278,1.5549777564,0.6094518556,-3.710681847,0.1891804847,-5.3157007316,-1.7952206764,0.9655214463,-1.0785899488,-2.2487160415,1.076483539,2.360152382,-1.142522045,-1.8234811908,-1.8130987869,-0.4689054731,-4.0127631999,0.5145951766,2.0690359718,1.4823288088,0.0122343246,-1.3425022195,-5.3824379364,-0.8609146093,0.2817802943,-1.6738039178,0.8075359735,-1.3158434608,-0.966282871,-0.1240534422,-0.2321087382,-1.4525480881,3.4893301234,-0.4386617214,2.4019032135,-1.7563768375,-2.259630808,-0.816359962,1.1516818348,1.6793440983,1.0806699303,-1.7303201247,-1.5118149319
biasActivation=0,1,1
[BASIC:ACTIVATION]
"org.encog.engine.network.activation.ActivationSigmoid"
"org.encog.engine.network.activation.ActivationSigmoid"
"org.encog.engine.network.activation.ActivationLinear"
