encog,BasicNetwork,java,3.4.0,1,1507400256800
[BASIC]
[BASIC:PARAMS]
[BASIC:NETWORK]
beginTraining=0
connectionLimit=0
contextTargetOffset=0,0,0
contextTargetSize=0,0,0
endTraining=2
hasContext=f
inputCount=7
layerCounts=3,10,8
layerFeedCounts=3,9,7
layerContextCount=0,0,0
layerIndex=0,3,13
output=0,0,0,0,0,0,0,0,0,0,0,0,1,0,0,0,0,0,0,0,1
outputCount=3
weightIndex=0,30,102
weights=0.1019364874,0.7806313342,1.2369198836,0.8164415407,1.1213790343,-1.3138687422,-1.6949880885,-3.6031236957,-1.6810787872,0.1418909819,-0.0340747219,-0.4337201952,-1.9010418724,-1.4661677838,0.853729741,3.8675881288,-1.4475848783,1.2897006051,-0.8163609217,-1.1390851103,-0.9584121871,1.2398530248,0.6612421707,-3.9235499169,-1.9360977231,-0.5455863972,-0.2922244955,1.8290488184,-1.3047852401,0.9827060247,-0.7555479043,0.3038338261,0.4973895903,-1.0075723771,-0.4512478013,-2.0863945611,-0.5568088571,-0.2256606406,0.3237830107,-2.1661358643,-0.2983485599,-0.4072875954,-0.1686520264,0.251038157,-0.9190664743,-0.2692812718,-1.8242646961,-2.034259019,0.7567242972,0.5461087955,0.3812841762,0.5606855635,-1.4715164958,-0.439252509,-2.04099125,2.5292476288,3.7028578701,1.1109421288,-1.4625344081,-2.800333575,-1.7493146504,0.7871880978,0.2125001804,1.0158609888,2.1897620311,-0.9604682055,-1.6902492824,-1.2092471408,-0.5443741507,-0.579931155,1.6855759027,1.4707737832,-1.0302455214,-1.8217712598,-3.0305134048,-0.651360315,3.3646333694,-0.6437258622,-0.9574991385,0.1077736089,-1.5560242389,1.0249080069,1.3448261256,-1.8044906777,-0.2048120262,-0.3215509435,2.2609699788,0.8415185895,-2.9510048277,0.3454321459,2.1031097799,0.0598771283,3.4337862865,-0.3917295642,-0.8116139946,1.5461802304,-1.4402631849,0.6060604791,0.1714419436,-2.1263968449,-0.19933713,-0.4632649091
biasActivation=0,1,1
[BASIC:ACTIVATION]
"org.encog.engine.network.activation.ActivationSigmoid"
"org.encog.engine.network.activation.ActivationSigmoid"
"org.encog.engine.network.activation.ActivationLinear"
